digraph Tree {
node [shape=box, fontname="helvetica"] ;
edge [fontname="helvetica"] ;
0 [label="Agency_Code <= 0.5\ngini = 0.439\nsamples = 1963\nvalue = [1323, 640]\nclass = no"] ;
1 [label="Sales <= 15.5\ngini = 0.476\nsamples = 632\nvalue = [247.0, 385.0]\nclass = yes"] ;
0 -> 1 [labeldistance=2.5, labelangle=45, headlabel="True"] ;
2 [label="gini = 0.294\nsamples = 67\nvalue = [55, 12]\nclass = no"] ;
1 -> 2 ;
3 [label="Sales <= 98.725\ngini = 0.449\nsamples = 565\nvalue = [192, 373]\nclass = yes"] ;
1 -> 3 ;
4 [label="Sales <= 52.9\ngini = 0.485\nsamples = 393\nvalue = [162, 231]\nclass = yes"] ;
3 -> 4 ;
5 [label="Commision <= 12.39\ngini = 0.494\nsamples = 276\nvalue = [123, 153]\nclass = yes"] ;
4 -> 5 ;
6 [label="Age <= 45.5\ngini = 0.481\nsamples = 249\nvalue = [100, 149]\nclass = yes"] ;
5 -> 6 ;
7 [label="Duration <= 31.0\ngini = 0.462\nsamples = 199\nvalue = [72, 127]\nclass = yes"] ;
6 -> 7 ;
8 [label="Duration <= 7.5\ngini = 0.442\nsamples = 164\nvalue = [54, 110]\nclass = yes"] ;
7 -> 8 ;
9 [label="gini = 0.491\nsamples = 44\nvalue = [19.0, 25.0]\nclass = yes"] ;
8 -> 9 ;
10 [label="gini = 0.413\nsamples = 120\nvalue = [35, 85]\nclass = yes"] ;
8 -> 10 ;
11 [label="gini = 0.5\nsamples = 35\nvalue = [18, 17]\nclass = no"] ;
7 -> 11 ;
12 [label="gini = 0.493\nsamples = 50\nvalue = [28.0, 22.0]\nclass = no"] ;
6 -> 12 ;
13 [label="gini = 0.252\nsamples = 27\nvalue = [23, 4]\nclass = no"] ;
5 -> 13 ;
14 [label="gini = 0.444\nsamples = 117\nvalue = [39, 78]\nclass = yes"] ;
4 -> 14 ;
15 [label="Age <= 53.5\ngini = 0.288\nsamples = 172\nvalue = [30, 142]\nclass = yes"] ;
3 -> 15 ;
16 [label="gini = 0.245\nsamples = 147\nvalue = [21, 126]\nclass = yes"] ;
15 -> 16 ;
17 [label="gini = 0.461\nsamples = 25\nvalue = [9, 16]\nclass = yes"] ;
15 -> 17 ;
18 [label="Product Name <= 1.5\ngini = 0.31\nsamples = 1331\nvalue = [1076, 255]\nclass = no"] ;
0 -> 18 [labeldistance=2.5, labelangle=-45, headlabel="False"] ;
19 [label="Commision <= 13.475\ngini = 0.168\nsamples = 585\nvalue = [531, 54]\nclass = no"] ;
18 -> 19 ;
20 [label="Duration <= 13.5\ngini = 0.146\nsamples = 544\nvalue = [501, 43]\nclass = no"] ;
19 -> 20 ;
21 [label="Age <= 44.5\ngini = 0.082\nsamples = 187\nvalue = [179.0, 8.0]\nclass = no"] ;
20 -> 21 ;
22 [label="gini = 0.042\nsamples = 140\nvalue = [137, 3]\nclass = no"] ;
21 -> 22 ;
23 [label="gini = 0.19\nsamples = 47\nvalue = [42, 5]\nclass = no"] ;
21 -> 23 ;
24 [label="Age <= 50.5\ngini = 0.177\nsamples = 357\nvalue = [322, 35]\nclass = no"] ;
20 -> 24 ;
25 [label="Commision <= 3.15\ngini = 0.191\nsamples = 328\nvalue = [293, 35]\nclass = no"] ;
24 -> 25 ;
26 [label="Age <= 35.5\ngini = 0.167\nsamples = 271\nvalue = [246, 25]\nclass = no"] ;
25 -> 26 ;
27 [label="gini = 0.278\nsamples = 60\nvalue = [50, 10]\nclass = no"] ;
26 -> 27 ;
28 [label="Sales <= 60.5\ngini = 0.132\nsamples = 211\nvalue = [196, 15]\nclass = no"] ;
26 -> 28 ;
29 [label="gini = 0.158\nsamples = 173\nvalue = [158, 15]\nclass = no"] ;
28 -> 29 ;
30 [label="gini = 0.0\nsamples = 38\nvalue = [38, 0]\nclass = no"] ;
28 -> 30 ;
31 [label="gini = 0.289\nsamples = 57\nvalue = [47, 10]\nclass = no"] ;
25 -> 31 ;
32 [label="gini = 0.0\nsamples = 29\nvalue = [29, 0]\nclass = no"] ;
24 -> 32 ;
33 [label="gini = 0.393\nsamples = 41\nvalue = [30, 11]\nclass = no"] ;
19 -> 33 ;
34 [label="Product Name <= 2.5\ngini = 0.394\nsamples = 746\nvalue = [545, 201]\nclass = no"] ;
18 -> 34 ;
35 [label="Sales <= 38.5\ngini = 0.371\nsamples = 704\nvalue = [531, 173]\nclass = no"] ;
34 -> 35 ;
36 [label="Age <= 26.5\ngini = 0.276\nsamples = 339\nvalue = [283, 56]\nclass = no"] ;
35 -> 36 ;
37 [label="gini = 0.472\nsamples = 21\nvalue = [13, 8]\nclass = no"] ;
36 -> 37 ;
38 [label="Duration <= 32.5\ngini = 0.256\nsamples = 318\nvalue = [270, 48]\nclass = no"] ;
36 -> 38 ;
39 [label="Sales <= 28.5\ngini = 0.194\nsamples = 193\nvalue = [172, 21]\nclass = no"] ;
38 -> 39 ;
40 [label="gini = 0.135\nsamples = 124\nvalue = [115, 9]\nclass = no"] ;
39 -> 40 ;
41 [label="gini = 0.287\nsamples = 69\nvalue = [57, 12]\nclass = no"] ;
39 -> 41 ;
42 [label="gini = 0.339\nsamples = 125\nvalue = [98, 27]\nclass = no"] ;
38 -> 42 ;
43 [label="Duration <= 34.5\ngini = 0.436\nsamples = 365\nvalue = [248, 117]\nclass = no"] ;
35 -> 43 ;
44 [label="Duration <= 22.5\ngini = 0.383\nsamples = 178\nvalue = [132.0, 46.0]\nclass = no"] ;
43 -> 44 ;
45 [label="gini = 0.43\nsamples = 131\nvalue = [90, 41]\nclass = no"] ;
44 -> 45 ;
46 [label="gini = 0.19\nsamples = 47\nvalue = [42, 5]\nclass = no"] ;
44 -> 46 ;
47 [label="Age <= 41.5\ngini = 0.471\nsamples = 187\nvalue = [116, 71]\nclass = no"] ;
43 -> 47 ;
48 [label="gini = 0.486\nsamples = 147\nvalue = [86, 61]\nclass = no"] ;
47 -> 48 ;
49 [label="gini = 0.375\nsamples = 40\nvalue = [30, 10]\nclass = no"] ;
47 -> 49 ;
50 [label="gini = 0.444\nsamples = 42\nvalue = [14, 28]\nclass = yes"] ;
34 -> 50 ;
}